INPUT-HIDDEN WEIGHTS
102.02946101870518;-152.91127949843556;-48.124085043913034;239.12666350762427;5.631584481871857;-194.3665875489862;-116.65846658899287;99.1617386095645;483.1394082666855;2.0500990072907754;151.2068315312093;-44.13585252143118;278.05107701485167;-292.53420241014885;-2.907379777802378;-125.60375413809376;106.63686325451734;-46.40602438011612;-13.224845211891303;448.47026608028006;-13.108358539615082;-539.7265990959843;-314.5016954512068;614.2983482231549;129.26334745637337;-290.961897591981;590.2020651575901;31.71361384016573;198.56899669541667;-15.228518851779361;-39.06136691870708;272.9476434316378;-63.59098650220138;673.3402421709017;54.70320878954603;45.09366749714301;502.87814417438517;-56.18160416971528;-6.932549887263812;-10.592000366367621;2.850588004570326;517.4733562173126;105.941494730497;155.11915652226284;-226.57288877402058;-5.996992890595472;-43.324802072416865;-23.005698953155548;339.926313657993;220.36019679305912;44.9331104491069;35.377808840327425;-1.2613284635053392;22.538739237089793;484.7022809650094;16.65870320979146;189.693423376808;30.686766480376562;-17.57895147890529;-682.4273028131015;44.0847460225229;323.01626078243646;-262.46493178977283;-20.28049495783444;16.327753745805115;-260.3275934584205;438.42646348352497;-371.95819222126937;360.53266758456016;-7.578915611684427;-41.246376261682066;32.97321422008369;-573.7975038107105;812.9801384637043;110.7699054994721;-508.3347918609712;242.35181896837224;-347.2746564032085;77.49858472024525;15.150348331942014;165.89801642431226;389.3900069142865;-10.503755354669503;-559.8376870828635;135.67412503693836;192.02877027654915;-37.30933687078153;-7.077990624898075;33.84242219311238;162.07167388085793;19.29103227982383;-128.45578858238665;-63.66476267604052;-11.053912921094621;-44.185838257679194;-202.19117694132154;-41.39548096218122;-19.595372270587376;-55.517201704375175;4.444372527409797;15.003732095662707;-11.394019753122318;26.467902708812822;11.449225731677483;-3.450488898054216;5.410075700836189;29.01583360531999;-45.55471203623302;-9.620975533195264;
82.3667493983511;121.46854245367828;-28.306872458349453;-47.283058938432134;0.8608327430887666;-134.28479223920758;357.1053652152192;201.71492446772234;-146.6231509620142;59.2248212937212;24.143015900162705;-57.56816913827103;-78.46465751730365;-178.34817238187594;276.84979946952785;399.9604926271692;141.246787688912;348.1500127920973;-9.867829127138375;5.146948715268408;13.802547474252865;-82.13431718462687;382.72649645391726;-333.4643726680065;216.87475373895177;-427.9307159234019;-4.622810899744769;-249.9654619926035;-173.64805476032984;66.74268715512103;79.62527303537584;64.67260632820964;-27.9732733041567;-562.5744015580253;127.18705200596672;-374.1091006498683;-145.57964115648448;198.77506553502388;28.190942400003316;52.847933751420534;74.81856261411703;526.9346259990238;24.578316229209992;-5.410353694535719;-175.73471546869953;97.7018733324599;-61.67092357063601;-14.51622073296936;-184.18210976483357;-132.85486698525128;-14.854335630257793;37.86416997729087;27.515005231679716;153.46461609503845;-45.055999849496466;-19.613931042250403;-98.74382918884739;54.26174559147657;-1.3145525475452209;-110.32264216900307;30.056094822917622;37.28576685274501;437.00515595058187;19.425209949323705;5.33504391059101;304.1434129531717;-44.09992099343349;40.25802201823012;453.4059477219673;-152.95374600978198;69.03496917532655;12.037052654022336;87.51289467372497;-63.510919232528316;15.419929481339432;819.6854717302742;234.10034620907138;-189.0085260442807;22.366380491356882;34.28988909572299;49.1118937926919;-353.5847201228943;82.57464638183991;-352.0497717047032;98.42718425872873;-44.10023007001378;9.408429652914867;41.29381059888292;210.57331657634978;145.91704417284288;73.529561495368;-112.43961428415794;-10.750814901925855;-674.4127459529656;-34.83939537446057;5.605692193770615;-143.438417683972;-0.879812460374589;114.46547121257109;40.60030930207957;23.687984482293214;-25.30360323853142;6.665272399732566;5.281664392809205;96.7923082951757;36.61710031922699;-6.612840947074779;30.49093614589783;9.392132566610185;
-32.1453469098428;-313.16149884256265;13.204636505366112;0.027793528589748845;-26.751223336729606;165.8223586737573;63.81378495521012;177.72453554023386;156.62391103859412;-39.82892412886718;-148.16519564857865;150.15465628010335;45.378397792363295;-294.7670425576293;-85.27429904291476;122.82107909789313;-85.57756032201532;-104.27201534961013;5.851267962534722;-121.03900954979143;-23.843791412509397;-47.02956303345227;189.275654284977;-189.9987271719409;-200.66327719652958;220.7850599433854;194.4664422700325;486.3482580529612;-84.73742899056381;-51.38870801946266;170.85671228266676;78.18838161147414;300.3384481449156;31.73841337870226;208.34708886179317;539.245164077714;-77.42245426279834;-383.73316755995126;-44.600070708573725;-29.216175217573817;50.55876437473468;-13.313668123081529;-45.66340237821482;-113.02291059206573;-250.185823797757;-140.08270824430016;130.77478316562625;-15.320043773738341;30.96254124138836;-247.87356952767212;-40.071587518337616;7.866971032602285;-1.4416133314365678;105.32466318954458;-144.42928322809345;31.36462871354576;-83.76622953339516;-22.123448459351717;-32.91021156033723;-92.74958225748955;-42.75040636564917;-361.4927155222758;-545.5281064721199;-30.753287159163268;-10.531731036901496;-13.910190893725545;-106.88131212601175;502.5430678628748;-324.23081790692675;-264.7647618052922;17.073100989425416;-35.794722630197796;453.87670101299636;-66.74107527503156;-58.297710630439234;-101.21066107464773;99.51889523822554;-245.82532582479467;-61.3074817868275;-36.13638935889587;38.33379871718357;262.5776113698251;-8.337807904493394;-160.38153990273958;179.08204798331042;-167.73427737028126;-29.816656791455213;-34.3902459979175;-95.05989323782393;122.99420018721335;-16.272043256930935;462.79626188949595;766.7049882699591;-159.41952320899074;867.8013712528573;-81.21538309978713;402.01005727486216;41.61335800268789;-20.7241906810252;-62.62975567277912;61.66185111447336;-32.571994985555804;-32.172392884288904;-8.038019805199648;-48.92462276270147;-16.820527029125966;-7.0951109833977055;116.59803341220203;-26.4350850735469;
-94.19489336048467;34.79593494732644;-23.200785095804594;73.28940828545254;-10.739075914920695;89.58677984265019;-165.8749672255118;-40.908880281988104;-323.67963334708753;-53.08989684527669;68.21763976638344;188.6723978342586;-59.30406711911449;-59.81230492032285;30.52917879655612;-73.66757141603065;-83.0395941085339;518.9043357051464;62.76888314991002;-164.6988766436672;12.903163398886472;-635.2988194045614;141.62717615665696;-322.33300357752216;-206.8945751474858;-101.70291769095432;-151.5354494497329;-162.50168585742927;-286.12106155927285;-39.243244158309864;183.14677361732336;559.0887963916024;-12.897350725426884;146.82601197254752;-128.90439449413077;-241.1854173056372;25.83254358749454;-471.8297061625785;-38.451279330088475;-27.906820931145123;-84.80049596223915;51.59389104399538;-72.66921971288068;205.8511303277332;37.398335233870824;306.8806039834173;406.60780407096263;-26.11890380308903;300.0026156835863;-236.09032993000554;-41.501139113708575;-32.27359174497184;-31.2053160000216;8.450418317991382;-276.3667586838748;-545.7914349373826;-253.11634117185523;-47.08483015926733;-4.05041136014551;84.42768156691604;-30.40708114613063;85.38583856272948;105.39772690030765;-41.564677380443214;-27.007395268810196;245.18711880874923;164.04079024202974;-119.5607980451205;-345.1026118047832;272.2850093739602;224.46717484956858;-34.833919335192604;-409.58908531381417;0.25957318468734625;-58.09202514052453;-571.7145693321223;165.6848251322877;-187.4774640476249;-37.17262899028144;-11.109634974005726;375.0203130691856;-266.3759368380285;-112.26368453783161;572.7079102669132;-223.53213485233832;16.13008924285314;-26.099119917530103;-14.681836525868748;258.84142679822855;-262.34982797132903;-49.59089471875195;-181.25150778059614;-178.610088021203;-94.50591019466269;71.01975399519084;-120.13583113218202;310.72393198302825;-12.79117410886302;252.255810188446;-0.3039514289673981;-3.3839789559862763;-1.2300032527115914;-30.612247673491446;-24.018661812048233;-56.2326053927279;-54.25737901694927;-33.68047171649853;-98.72475486832332;-14.623079649999498;
-77.1623549445331;362.6931548895259;-2.857986226013824;225.36596181261095;-12.616744656902252;293.77697875180064;-19.149355439583157;241.58165183304118;-26.61142443156782;-42.697808864874034;154.09780841788222;-309.90129357245013;-204.64324082242712;-91.02162484183096;-85.27361978405158;-29.140841443821635;-129.90593341171646;-26.456300417401373;-34.77984955029688;-173.18213128656635;-32.09911122526659;22.782088489962597;-736.2124742658602;27.547744651193064;343.89602700832745;89.43602194087772;-54.92973824854177;43.19200933237584;299.987518025947;-35.309140984128916;-83.60285822264665;-369.06455036604;-352.6071917107668;-837.7228492788988;-445.66098662490066;48.83225507982789;21.95387852604267;736.266454470114;-23.754069408497596;-52.377645885571255;212.50908211147885;81.94854998181611;-52.945248803775584;168.44732218611693;321.12042235334474;-26.40555792128649;-90.62431493380579;9.196323419310568;-114.21543760653707;200.39170348720197;-13.635758226371317;-70.18913530864337;-29.070628208798265;130.2511157251007;-7.512709072304466;-533.0451322132939;-141.70097064798716;-41.82309954698406;-16.02404852694695;939.7923314581886;-72.71369302434508;173.58578869171652;180.10539461562465;-23.14012520417441;-39.98967133861625;-10.347859760162365;-542.5378676408378;-459.96461235452523;-203.88875794773116;-621.4473551518053;-224.80510069220293;-44.3522308849045;-173.08157582056654;-567.6634116243272;-84.68713959632278;-222.8855156852576;-385.21648801824125;-116.20522793625624;-77.19071236554983;-60.91293812908374;-673.8862257068263;181.3333468449729;43.519859547910755;-7.8032491744976245;-160.33094085562934;14.471429739165572;14.440862544486729;-47.51135326628422;-157.53013357377003;70.45046884530385;-88.13588680405334;-121.83718255259565;-346.6102584298762;853.3451129959952;-98.0655946333411;-411.45543112376043;-427.408381654425;-34.67164610970725;4.8142740480118915;-72.83869116312773;-85.9592081016927;-9.604782718353608;-51.752300674563166;-47.69596245278502;-68.56781981547812;-21.369645460332688;-37.891184817237466;579.4229345085002;-42.17477078041571;
-95.75586876889842;409.6802515367076;27.210430099516277;-193.22155821196625;40.44974052254846;-55.87212460400224;-541.5063463135308;104.22347946705455;266.6957747487708;-29.686842672773956;299.22785622460964;-81.78496553292959;-167.4537542978809;265.8104307991837;104.150611710963;10.100810276158855;370.5882869934591;-319.1960158562303;-23.375110890177645;-33.02155688070302;13.570302186425014;-76.58283751110952;129.93229293661335;-188.38228811596355;158.0947843617696;693.6723075603951;-477.712496771456;-97.71862096155672;-51.10199388149842;-6.831835665123904;123.61647922164144;-305.85822138350784;-9.282462676545506;59.18829850597604;163.64619963150218;-83.49884378608408;-234.8580616965816;-366.4616721321934;5.195248604396801;14.2740780113929;40.77642559632976;-156.94721659533883;-49.86213679260252;36.373583518534765;100.17982955038859;9.479325989309169;-116.1010641871241;31.399290090835624;416.3420824008903;148.9851839103509;-14.277323381776661;-63.02801125180987;-19.03106009498771;75.78406295485134;-112.38627176136575;395.1225889616374;132.39170591254998;-53.912744893279275;18.1623395622805;-96.1139876758389;-24.433134575680196;-199.913591949528;-532.130950723103;0.1374564953136704;-23.88348335127241;276.567495629588;-474.8985373862553;20.099353356018714;-8.507371235165655;422.92917342496577;-241.79141499755318;6.882445871619545;-56.417697965362976;-19.052521570636028;-23.40435989053384;-332.3622835894294;-689.0157862176682;544.4475484772333;-23.53478973234739;43.90660839720068;-378.5498207089037;-281.54121298057754;253.11777548202306;-32.15088439716432;-265.33150289197437;280.0214509003495;104.91056712578822;-6.22083808260473;128.03543137985804;434.68799524126007;-76.37619467525577;442.409282803147;114.21515025301214;-2.7637858433471134;-671.9483815882152;-229.23344187111903;41.86130596321408;-34.964868068841334;-98.46823610204774;24.01631725029376;-80.71885131011523;35.10989996883679;-30.746366382234548;-33.47086405937863;-36.482804723482005;-29.480706777806933;-36.64317496729469;-68.39032539085507;4.920284356135399;
-56.232310846912426;-242.96183053180002;-7.69510642980123;123.07052123234944;-18.695350415236156;-107.7036119945106;174.89181004958482;98.30453049806107;-453.31834338285626;-34.461859243378484;-232.67575123962783;146.52658809447536;191.1235635911581;544.522302888255;-46.577273660370224;30.598603394335843;-18.408818632205875;-74.66513083676476;-1.3217971880327406;-114.45229601234502;-40.171239180190966;725.6772765440535;166.418376324409;-166.6764181660293;-260.07280745854814;-339.7571286432424;-369.62455915826604;121.48344944513265;133.48017363989715;-38.12006316121736;-26.585794783008474;-488.7335618886958;391.50057449508085;-75.19893714565295;-84.24651896678012;-507.4656079745528;104.81208463922772;-392.4956142281177;-26.641340772946897;-48.30185969879785;42.72939196208781;63.79875866215795;-26.659895190587402;-399.5420937524574;321.46835967788917;127.46355134873686;-167.34988250162544;-9.462025676900621;-215.17728562968543;261.93131993340853;-19.829871185521807;-47.70998660046906;-44.68014217773776;21.627560478033946;279.595218061994;594.2593910808831;178.0055762802421;-37.56631945324063;-25.123943370660704;149.59551422117872;-37.17874873110484;156.87123243220324;-255.33551525039803;-15.861696214068461;-26.4989213418783;-666.8626980764723;-125.47729758540933;-265.78008018950396;-151.00106110059184;-264.6218963611267;481.7632482900803;-35.76865693932517;387.29019938958044;-28.08027546000145;-54.39989445335158;-124.68066752118975;-239.49289215595888;71.00725490065058;-39.55939661479584;-36.08710282990244;-316.5872128984525;-240.68703534579285;303.764724100053;416.00615576293126;433.81311520696215;317.16221065063746;-0.08267088297441988;-34.06735979310847;-197.69003883137637;-351.4306413634333;-48.37563418485856;-3.0034050607948073;-213.8262080122303;-58.12504963412555;-104.01147009830754;498.6629305115448;-149.4107593045744;-29.79306665298711;196.04026716860616;-40.78249357554448;-24.755794057585558;-25.558466141143022;-3.780349426472849;-16.909228663793485;-46.01263373671535;-39.71782434866974;-7.277732529625417;-305.38185986534654;-16.317370230644226;
-20.198576335756186;337.8362572213961;-15.224181553545424;-173.52980776816906;-43.162602741346944;244.06338851041517;229.2921809776544;291.7601039469807;164.25391466098534;-5.9984753726599545;-26.609009377542296;271.6799779015773;-9.713248262835178;-83.31063161229612;-0.6062366201048036;271.8315179869265;122.15896359570588;-75.97363649788707;27.946391143710866;-86.5142821719957;22.57711238071092;53.531231532677346;-791.362473591005;-294.5597288874881;90.44779449490991;-236.33014129179955;-274.19584274102914;-134.74637574159595;-45.90572551068413;-1.8994645943194006;96.55812253566921;-356.4220441770765;28.850882471549692;57.3140066072085;39.74383975366189;-463.0535916903694;251.8913509184114;-406.39013448374976;-3.758605733968853;-19.57601016166558;135.77580763932994;246.1132614063102;-37.68373714128345;192.1181763353892;161.28089343167332;28.464379039007074;47.53517891386044;-27.413707159678676;63.20839799639393;352.7607279982597;-24.04761669783256;-8.799926802740698;-5.346003463054424;171.80763987774193;39.5317379926061;-116.58048913493292;82.53636114384828;5.940545428699069;12.402412633077368;10.12977591067887;-18.317621110796093;120.56040769760045;135.5180438706657;2.9776953697814044;-19.160550520838466;-546.6550629155751;-148.97191991473105;249.86326857582827;75.22293940229987;140.061895446686;-39.94618219345497;-25.126910955597904;-37.68509573875875;203.41462346963297;-35.62031611919991;-88.21949905010221;113.19522891132705;570.928608197912;-33.53079325528494;-35.69297055808952;3.0631917329638965;-34.84825843710309;-83.96364390435613;-0.7488918892446675;-179.03985305624636;-70.30234390534658;-23.152851327855853;-3.7520121107827005;-33.542093438033994;-253.0442697799225;-9.383631201372813;139.76486135884363;32.45131636533076;-754.3854995098646;-87.34649561089897;719.8799574312175;62.659258648734735;44.44480444104458;170.48403643769066;-5.769771689205399;10.34659931830445;-28.43471749025067;-18.831080561174247;-6.334101282750179;-7.372190256265279;5.804529960085749;-24.59534083941258;156.34502703479004;-11.851421654341246;
-15.474928091770398;-209.85967308461161;-13.511005867869091;-186.56358088747072;-0.3074109166636768;148.6270444472896;-6.25188536941879;36.88946245121893;-38.20148465607486;-23.38779639767693;-196.9946230682624;-128.63221855643903;-104.89687660711827;-274.2632745228011;-27.606817664165415;51.07629032437204;-85.15165858269017;-86.99250798951411;-24.842729217627504;-12.260443475300445;9.827613173074809;52.08883952711528;-59.686087362525456;92.73101517987114;-46.35452010873629;17.40605829372923;-24.92314227120285;246.2953100614567;-146.37513214572706;-7.982759098181283;119.2343759212397;-385.144221097498;-107.24091357054225;-56.15291427706843;-80.9947328310421;251.81959193598104;129.4715030598601;125.07903384077682;-7.430541738720551;-13.6813807221289;-18.636569315318944;-145.6186828895545;-22.469973962109528;245.25708690597708;-225.40254064648985;26.889291253726824;-174.92182215837698;-3.9404361780129937;481.5743927605066;-107.62094500757063;-17.414374647513036;-56.537957894088876;-27.23009654368583;-2.047803676933982;433.5943055912335;241.50722566340957;147.26653596292775;-22.41480626243047;6.35857966585829;547.3524513826343;-24.242443877278735;-286.6762707458955;161.67027472662454;-12.751789953477337;-27.215721501752032;-114.0624873826487;-73.43034247473264;-43.469686702844534;-231.94766160371617;90.3849860120992;113.86618130106905;-16.21136850210236;-627.4452446198914;174.90966555474395;-21.838375370325743;164.16930100374933;-52.58932691162931;-0.022599271318712526;-15.056677047644955;-2.195351418027296;397.2188869399367;-36.657619878830516;-267.9433923855827;-13.47174033141215;108.62049038707256;-81.06987625124833;-16.487744745757094;-10.050404269992878;-194.78640005777612;-15.140506571012102;-50.104033101534284;-94.84067383560041;-120.9236236339234;-730.8748804993769;144.6189437909585;-103.97717270965957;8.344663775050009;-26.84275679021713;-144.85248227081613;5.679702544163275;-62.38087938758019;-8.319246653645488;-22.031042087492096;-25.606454183811508;-24.240287268989675;-27.07324886472733;-29.717676996797373;402.8563724746286;-10.897203885691154;

HIDDEN-OUTPUT WEIGHTS
3.1410845367341915;1.8500313834863789;-7.9237020389421;-7.631515733010071;11.776958588638308;-9.146457581019218;-3.259535690979018;-1.2978892703679312;-0.330012967742326;
-18.41535164449377;19.43365506795628;-3.825161558677258;-1.4619202330843524;36.987377380600144;1.9303974269757957;-8.00027216119438;18.628933854492004;-39.615691145794194;
1.4110612661779962;-6.787352665161345;-1.203494003684233;-3.1226360614136937;0.3438725814117037;0.5496919767211765;-2.142395296768394;-3.598019921131299;-1.5754537509010083;
2.7703922626500024;-26.171299231127687;-21.75162284562888;-0.611004727457596;20.390619746761743;5.415871845547503;3.364221002232483;31.523750083509526;-6.946529787524608;
3.3318416926624863;-4.773655053787969;-1.66346887885933;2.547678390217398;5.427183503092135;2.563722535858131;-4.505025403358332;-4.603589317346848;-0.7238466438461527;
0.6563236618898054;-10.828384322988152;14.65199538210116;-17.32204821700334;3.5804405755669753;12.693720289929646;24.584734734623265;-35.46576219387235;19.455528482782125;
1.2532117497536763;19.909037101269043;-5.987504558846214;-29.797699617243726;43.36553252807968;-11.433412875030712;14.190413882250592;1.1824031790097522;-18.00329965399588;
-4.894874832873789;36.69501326774684;5.262901602656871;-16.031524935497135;6.7216406520675225;-7.61275519424959;8.736933402941835;80.22471151556232;40.787366197982585;
51.4622501974846;-13.561637550062912;-0.3109805157274491;-25.595491687550386;-19.741438146221412;11.080776411670449;5.201767463556782;31.275835521181143;-6.7521617665251785;
-0.07041651998158645;-3.310526663607459;-4.6209138637921034;-3.804271836515172;11.081664683695996;-4.470740694370904;-3.1787398052839477;-5.559657668744048;-3.7836114995305636;
24.381023622821647;-9.991017559087958;-19.555326405768835;-13.89712675865329;-11.70147493522091;13.864809943125472;-8.231460972770444;8.278100451541185;-3.3281794149109247;
4.242860306929146;-25.661987483925706;-18.8601456811248;5.520768342166223;24.0010818124727;1.2717563879726566;25.84883004324165;-18.947987071852495;-5.814208310893541;
5.951018213703236;-7.10662990854741;8.779731642393998;0.7817394175555414;6.011940891749223;-29.199724616901975;-1.3095549664958157;-3.418591583462677;-6.125858314835287;
42.77176445599469;17.52570875445788;35.36618888748983;4.045787290577162;-43.26792718356034;-1.1329930890289348;4.882511917523419;-33.63879821000051;-25.218800125255278;
2.65530762033621;0.4743869347582211;-12.002228228703528;-5.365000156700733;8.083553254467187;-2.0659004126593694;-13.596521401493616;-2.9095713316481535;-2.665142339303781;
-0.6525095497609424;45.45288269250562;-0.2661896488513537;2.8438587823782293;-49.178787569848986;-4.368989797474404;-1.32527889974476;-4.193194181198257;36.0697197426032;
-16.030709955808085;-29.2076015232591;13.513745927638373;5.938104771520942;-2.114519558886556;14.7525219038328;-14.040382057940503;3.802573110389144;-12.480075566742395;
-6.214663143190615;30.98430021177911;-4.426633487893071;29.318076985558278;-18.467099995189383;12.923391140972468;5.509014534807073;-30.69644319562626;-17.60676703753346;
2.106156381742585;-5.163554875649236;-1.5475719960122993;4.030850530232987;3.8520933105654946;-3.970398935730918;-1.8135402721971152;-4.45873182831016;-2.6269418882848745;
6.7302578233711445;-7.822741979924618;0.6649568045473465;7.800794084631304;19.6375349214026;-16.180613420142784;-16.201916732391915;-0.5086592371681908;-7.809567761082552;
-0.6343577222864614;-3.2444107748790447;-2.388145131102662;3.4085921138010646;6.129615019401538;-2.5106969878558054;-3.6123875748624115;-1.6629473116537674;-3.4863147999962574;
-54.41690838921314;-21.92262430691804;17.172898962288325;-49.760794681012534;26.00907204803941;-3.7517916520157755;32.88176955591206;3.1816090858423642;44.508300140734306;
1.6750562832289448;20.513943484855517;0.9888743628086789;-7.95254622220292;57.369554142365594;-6.001799119600681;8.877297186045212;-37.350012861508525;-69.3336934308617;
12.066639968863377;-16.55800666067316;-55.048209931089744;-39.572167307017004;53.59834716087004;-5.021113518609697;-1.0911937820256215;26.942914870390485;3.6713184039311497;
1.768483233118342;-16.005049625648972;11.813373096619172;-1.2284029812274135;20.647836526933993;-3.648970197520215;-20.26662201277893;-8.819099368356;-2.476805551731797;
-17.254155291073886;-35.657340892517404;43.917003973984755;7.352781491319783;-10.744452440989892;7.64085919313121;2.1406626808134273;-36.79895258517543;27.113196368903616;
9.652862185148855;-21.59183871314997;-14.190343894992939;-22.157880155972283;1.055885521983247;-20.647417724023807;18.47012715556351;13.911878224484198;-7.594851349426886;
15.519520496942624;-11.5791940213272;47.071931302172146;-6.889268537934828;24.209719272114267;-0.40752834376637825;5.382388545641503;-34.21128218697181;17.67175825491539;
-24.242444534859317;-7.65099406241466;6.846010619167683;11.49695864932567;-1.882703188459742;-6.572470655071369;24.178616136785077;-12.798706797142351;5.852637904880955;
-1.207775527620156;-2.4479064999020657;-5.033736780283607;-1.8662423565763064;10.086463508664346;-2.7241674760998977;-3.6791467729888323;-4.14494985413018;-4.9095455396778505;
8.035958643750991;-30.48722990672015;-17.191056135088235;36.87956544934079;25.38562130557662;24.595840597549667;-5.430318475270849;10.287379175086953;10.287746469923821;
32.56685147936897;-37.40233584718492;-22.2086770471547;28.840675851029896;25.410551869412753;-2.9843090955547527;4.908560906943515;-17.680150483800844;2.4603130965784494;
9.74536952556899;15.861453004060879;14.574758693880582;10.070895286923923;-48.32979707483365;1.6067255359609214;34.57721644163757;-9.34030981515949;11.369014952523239;
-9.393498625042776;11.25226418693141;-4.358890031923958;-18.54187793721217;37.79892224149534;3.9934409641662665;6.478757978486264;-22.125869370432667;16.2799638667035;
14.575250486039048;-4.820045969419168;-7.106109538978561;-16.004505902375147;5.519419051393621;-7.209222020047092;-29.514936649525115;-21.67078313377499;-0.03260299331921006;
-15.741980441723646;18.319873948601135;-17.33138120334199;6.975379911904179;-49.78812064261291;23.45745721134313;39.83795274700436;-46.670874430191134;1.5547043836415066;
33.3858387345296;0.6571379351888303;-4.267636081939936;22.806734888828515;-49.26787571655265;2.2086958212432046;-8.966172524853373;1.0373411181427208;14.671863727438902;
13.55390361306444;35.63309543328029;-15.288328153734271;-26.83230102534081;-33.924782785825045;-3.1815796824168294;-4.7963404686323265;50.927682044001486;-45.24874374148369;
0.032506906381235455;-5.5408134294354845;-4.806992684484368;-1.7303134626955776;8.14278092105187;-1.8660650338924691;-3.7475960501128784;-4.4288114511586185;-3.7269650552785074;
-0.11741214684595251;-0.9845848309648968;-3.159686273979342;-0.9813331654776034;8.676230550965554;-0.869026066673536;-6.5328391985017165;-4.048896546072145;-3.2160305968805862;
10.426908924927435;-10.088126468483766;-1.067718159337525;-24.915773263175076;16.974169945500478;1.3938146212258462;13.984019194470434;1.4293321828353749;0.6934562816652321;
-3.930765537343646;-1.5904404827521708;52.916951745906005;3.227135681985857;-9.258287426966367;9.827461584241453;14.91916612652477;-59.07565700650306;33.464844425245275;
5.853647118603209;-0.5957970780375614;-5.513144776379854;-1.8379762288679755;11.230046124891045;-9.55457899510592;-3.3019279195115367;-2.520306398533934;-0.7233235084942495;
19.632928743860614;-21.67608322524051;-3.9929243132685777;18.95910105009058;5.985508584748234;-15.049800625926807;27.822550473382414;-21.58983622748639;-37.42908316656196;
-7.955513495298462;13.127410726142807;-38.93585365289871;-4.492547545087673;43.54739562223343;-0.9023113353864423;-2.571138563037957;-6.113507231173955;54.15620010917395;
25.593407982671984;-13.95827059314872;-5.2358400277786785;19.518506669269264;-17.18498777385446;-5.607031079340503;18.88488938066151;-0.30698939119019064;21.28677487100021;
-20.612959153294224;-9.988602767389716;-3.3534448172827767;4.543329631814319;9.252603626785728;-12.484693727871047;-0.47218185166081694;3.967481799811598;0.03657976709496084;
3.3418151196191053;-6.987339929745991;-1.6437192342388456;-0.5251313736767089;3.1929161899695186;0.9491013075922892;-2.9894232489822716;-4.471884691625217;-1.4241310112151846;
-20.596771817449365;10.603567172146287;5.611447269777523;-2.029174032902504;-1.5480099341851283;5.973653959295696;-9.618917653334435;9.653798646775776;39.695098245848435;
-13.850038275336106;-20.41334598070085;-11.941601765619293;15.423479990693306;5.963345649567622;3.0606293649298104;2.236615943962725;35.44265156030893;-6.741421345343208;
4.949633750937184;-6.690284448399565;-3.343499495666937;-0.655759777213231;8.668435754937665;-4.8645098715045245;-4.148322360750664;-5.835517630189664;-1.6394536023423099;
1.0053175016438205;-1.460925295324825;-2.996005951385047;-2.936413126623508;11.241825095998768;-6.859470817363664;-3.5074311155427242;-6.3787933503433845;-3.762711664719855;
2.1884033130115843;-2.487901215047755;-1.0982491024724188;-1.5357486478396938;7.8858022298201;-3.700139035029924;-4.241277780283733;-5.437010899555997;-3.0716681713412974;
34.366919296772444;-0.31660535237470183;16.502554658472327;-5.244429273721949;15.169261148401882;-6.566784078220627;29.755354016436282;5.123636794521314;13.541703044550061;
65.86194686489101;4.5767159582968615;-1.3759817592976933;-35.347107966418875;2.7025596857870324;-0.5133833437564846;3.386973787145461;-1.0201582507247033;12.339370162658442;
-11.504938482447532;-19.237865555383937;-40.87516016036195;-7.117776204178168;8.869122909313566;4.244887122135256;4.324257956271375;24.320936077956297;9.189782393852898;
-7.035691775408647;-3.5591906956798534;-21.21321688484107;15.486999430189119;-4.506973365878295;3.8677712660818027;7.646793456842917;-20.103360846973832;5.838178286841859;
2.779185743138395;1.0432550297651677;-3.111270546561049;-4.317059837706227;9.830652898443468;-6.244515764994836;-2.758336366425199;-2.8260838674875286;-0.03809741813217891;
-0.32672588202744085;-6.036879543902256;-1.5673809443275342;1.0819316959308454;5.171470929909778;-0.2924364909908578;-2.5922572467489777;-2.650246989529282;-3.7520469486248453;
0.35953814830562114;-2.3489539097660614;-2.1628130648562522;6.558928849175557;17.764095702225518;3.63446076541558;5.476529749512102;30.443060393973113;-97.12002034338177;
1.872649507070222;-2.831527393837687;-5.698876553133764;-1.958091093783239;10.597293015370559;-3.9045368385657673;-5.726988220229473;-4.768466579472104;-3.843778695207865;
-19.210557771779573;33.46772160436556;2.889622099461465;3.757338430894697;31.023204738033076;-9.971494212145629;-0.5679748398044091;-34.25560554261358;-34.61482964226853;
-26.470541632034642;-30.42493282740267;-31.449998749457354;-2.8493144317198165;9.560014255572087;15.819138309585703;41.15570772973184;-16.769765065034743;-18.61972843906451;
0.8404098106919657;-4.6349594713698625;-4.21683991306141;-3.6458584654895714;6.470663741222437;-0.9396099003545167;-2.0607379325657456;-4.065619878720893;-2.6793581466186374;
2.4178457424168163;-3.950812636067677;-2.2070854978256036;-2.220776752919802;7.533808045832102;-3.254859269955757;-3.10423144425079;-5.915525451138418;-3.3285665029284783;
-2.1877272746011958;-3.0661395882426548;10.106808211003717;-0.29973967296708054;-18.487289555542628;-6.502832745586575;-43.572762532293275;-4.527264968871441;36.36727582096516;
4.4893126364653915;2.504040938951684;-21.92347416610733;20.867676070369185;28.0492289031913;-23.657339018216227;-24.94306745368018;-12.423081205682388;-10.93251186470318;
-47.22795410044578;-16.989431341769155;25.1765143375428;-24.177512373341173;26.57813166814627;0.4602336584552765;-3.079614615225078;-9.065071172975014;-34.820754451037544;
32.39011997662144;1.2021288896365343;-10.805965668498878;-19.280536599290052;-18.60942133180555;-3.207698717130385;-2.402753500373446;-14.08946265552588;31.253722371129523;
6.025151114463161;6.086178763403161;-21.359410136779537;33.567552033317945;51.96921222737806;7.88302450847009;-17.773130760206286;2.369492626934526;-32.97227335115246;
-14.758777235372062;-8.333729358918543;-11.524424313092645;-35.43779600266934;24.17308708635203;-0.04160830224545961;-6.179106988460311;23.926189602126048;15.275026284311489;
2.9013508874890133;-5.265564310876449;-4.267981293250479;-1.5041849821222142;7.980073841831898;-2.159036227345907;-5.873095579768294;-5.151323449473657;-3.2994881084412793;
38.44769963618455;-8.83480478164712;0.342962415456299;8.6480102038753;-45.516676422638604;2.3214936227137515;-1.7930550487306982;-11.792549103907048;22.804816358112074;
-6.083782450578094;8.859534351121233;20.208267522091532;18.969542910551194;2.250735696632816;-0.7936043878623116;0.1525376845035895;10.323145935697369;-85.55434513639561;
4.503012312199536;-4.250631587536692;-6.247503117596987;-2.566607539384971;11.865362807720121;-4.951816431963304;-7.2618710275800185;-3.6662867526154135;-4.046154829796519;
-6.733349712237994;16.042165039812904;-39.96888663990956;-6.008503970266483;42.368635974299536;0.8129491434975441;-27.918920009267598;-19.81963345989845;-10.695909215901663;
-20.92759917568484;38.61833609457862;-5.4637965681381795;-40.75961135098298;12.653287213825582;-27.64657714218558;-5.4568813513735535;6.304960392047363;-5.306871538840107;
6.6365564797082195;2.0830986903726987;-3.026215785084172;-8.813318835958933;-58.346934079807056;16.88847806304911;-1.4555807970169115;-7.935824208487638;54.802290063604694;
4.234265221695322;-2.292782917616528;-6.587140327013915;-0.7930029225989882;11.815625212300617;-3.5918490857371603;-5.942197081161918;-3.9317931436040796;-3.1171840709226153;
2.570296322865279;0.0633725092563563;-3.566264750263862;-0.3169704536595636;7.437368183705932;3.083153584824242;-6.556582176062353;-4.012702986621814;-3.141401048912782;
14.782221034608039;-27.569768580714154;26.323243485747224;18.21246769013872;-43.1711720437313;-11.877422525377051;1.0228457891154759;52.061798603971994;0.7403427771495567;
-33.71042069500482;41.61842020881144;10.566482230260194;13.169247395786057;0.5710097045592822;-11.41515633302225;-14.407444895009558;-13.285851723394384;-22.869711099181938;
-34.876391698804575;39.33943672226166;-2.767451088667264;-2.615139838390313;-5.337034505983572;20.40402632314344;41.48723677526003;-14.536768603924818;-43.775043559570356;
-20.19033542291667;-24.30125314639381;25.424887743941618;21.638522262521164;-19.596419143106093;4.2625971054740415;17.714718810454215;0.5836134708837487;42.139219988963376;
-24.801338818979524;-10.201921414468343;1.7953945709491173;42.76033970983917;6.650839306620792;-2.796708698825687;-5.570088147908995;-6.605850708807294;9.37725718371185;
46.31947746888595;-22.767536956470707;-16.99482796923227;17.05437886526632;1.0458618955943941;0.8884193987222662;0.6107522485832747;-28.417297213133647;-8.504114440422166;
0.945693470687882;-7.842305198881641;-3.017602029238922;-0.8703624384688881;0.2889380647431499;3.0678177528611976;-6.083146655383048;-2.941674360690646;-3.433691767936309;
0.63974227493423;0.05022290961010584;-3.4592040263662143;-0.5164389211394735;7.914396111063167;-1.1359085118536565;-4.416960249587992;-3.134292659629666;-2.801491843928798;
-13.668343299033788;29.360422534089135;-23.191955226675425;-9.091266903144739;-2.3676434155216826;6.261523119820645;17.758660219169073;27.296819704261193;-15.773890755484388;
1.070853172235346;29.224350118235517;-17.9545461302974;25.739037183892677;-5.115864626464369;11.486840886937916;-12.500404196864274;-29.73623054877316;29.25353417199281;
-0.7711302552272467;-0.811247014786922;-4.991585203234388;-5.734448852555176;12.819287251665799;-5.85515976455656;-2.59942210309821;-6.554725582095196;-3.813921246168939;
11.521325059060688;-1.703083115329598;9.127065367082418;3.622279436709372;28.99513454465059;0.05712642096357168;-2.224756867710485;-21.395737730778922;-50.77301105165435;
-13.022672739171187;-26.392642614167233;34.47238894426171;-15.54049257916265;-1.17093129888225;8.958223264730043;-31.64339672962547;16.269518943076427;28.587514557070996;
28.190267703142244;-22.448827831968824;24.589919937808165;3.751262476348239;6.506902342315828;2.2903942193851825;-3.1188771676021574;-84.39025305265511;27.187892414407898;
12.552547047143936;14.277322931596567;17.46027018080585;13.146011950514366;8.264781087445469;-11.003678666105285;-2.2122494237715657;-0.34006182432131865;-80.94764068312455;
-1.2723876111075643;19.017645661886508;-6.97515097479302;-26.552630416099422;59.191437253880835;-3.0109808296940463;-2.849832261745025;17.7089271721518;-59.193679108479074;
14.704937960771305;32.64702845211452;-4.836424132383614;12.279088161599097;-45.63971252550755;1.9637232792097317;1.618326865028901;10.120623607000987;18.620886938199824;
2.373766373096686;-5.046802155814266;0.709071276611047;-4.169718888349795;6.63535461928401;-5.365326485999725;-0.84503381305524;-3.7379874217744455;-4.552824488972055;
-2.694489683494174;-17.82852728109408;-8.594878677551435;18.95092182350403;18.862338851019036;-14.480520174425958;-50.39881266252839;1.4778561717399912;5.371910384185902;
-1.5477867727211627;-2.4615371084113478;-5.980892655589803;1.3880304312536813;9.682007836447356;-0.1227971477043424;-5.013478337787751;-3.0342336753006798;-4.886757123484721;
-1.1677954844633673;-2.027240147343365;-0.29517884270899736;-1.9051876293716206;11.182893292193652;-6.590162986045623;-1.1062987391562176;-5.339801175645647;-3.953004475309586;
1.7165710254478102;-7.704450938770109;-1.0893951764615135;1.849330841459934;2.9386562404870316;0.8737285605987775;-5.538072259363846;-4.459107768529059;-2.5637532865841735;
1.825441858796545;-4.878185167019472;-4.690195520303158;-2.3491984162414927;8.296979336539502;-4.207189796653852;-2.2768018078942402;-5.754793460928223;-3.378646173522787;
0.9918458817494078;-5.365355944391466;-3.150391393060184;-1.9417163792358771;7.371392789439305;-4.831869839335858;-3.0277307252648167;-5.421162659834025;-4.447972158432977;
-0.785476290207387;-0.552312468554172;-6.341738703222383;-5.2284146086702465;12.456222828235461;-4.403098615688154;-3.603954440718258;-4.997398123365258;-4.152984348368341;
1.6717386091968776;-4.267206236731027;-2.3715819784052004;-4.580701827354487;9.317592640523653;-5.161808336438923;-3.078161286372379;-5.961891716436205;-3.120006239957658;
2.5038870580913355;-5.090367631071946;-2.8179528692539595;-2.4523896530344507;7.261474226568823;-5.509678718827394;-2.0998641113489813;-6.709996608238612;-2.9365894482866355;
-7.050248854108323;-8.98631668235371;-24.224152748178145;21.002582937666567;38.79705065993233;-0.062219383475854886;-34.343313657159214;-7.692799005352319;57.486944593929074;
0.36159640556678174;-4.401024798242594;-2.7048016069748244;-0.529511440349432;5.967722563158096;-0.699176828664183;-3.5659349608605284;-4.430895378874593;-4.01476955869856;

HIDDEN-BIAS
-706.7663400646018

OUTPUT-BIAS
-30.770610376515407

