INPUT-HIDDEN WEIGHTS
25.524170469242886;-328.8890927325973;-183.6359720614108;-125.66617246788806;3.971791532522703;5.885915633670341;15.045667385462112;-263.5329204316097;-76.05491381696599;130.74259784239328;234.47983141220294;-474.98404593048633;-7.087807111840327;-270.9731572983346;315.5139882677032;24.558956277360625;-191.91037310707276;-232.57139794163604;365.8214729090192;-24.930155098493117;-40.207548160901425;63.184930368461096;325.3539221518635;146.1423059234392;189.53779578576058;-251.89562502882023;-286.25671718275953;-253.67655333467167;-16.789150751649128;-31.241605395242342;-78.18728458304483;-9.510684789264944;3.343322235723574;428.2679824071236;-193.9764069638299;-10.230543602336788;-285.4475955753095;-410.56339344182663;76.57378017629439;209.33379943291752;-74.27527997191504;-53.376941848031386;-75.43103044736799;-17.8513160228799;-269.6917716307408;-257.9159072820712;63.563079433715245;37.05731222983992;73.43271723242417;-13.255322552508892;33.738001393928286;-24.022325206144803;8.570145009773135;-20.984803140429225;-28.908252769241354;-26.922333043706512;-23.497857136448786;-187.36780035712866;602.1211958597092;-32.59983322129887;-0.060433062922501564;195.89447686568914;-61.62925313070811;-800.5065576801236;-453.8573317867849;185.5245964456229;298.526874743345;23.13584267604779;-74.25494129509177;6.054481904886778;202.0934596465736;-76.91958822577061;45.525560432284166;184.86842490754594;114.10381593289293;-203.7364378230122;-17.661394833951757;-272.7440244875038;18.63384399130982;-24.05774183746211;227.06033520762298;26.864946750280854;-252.4986754865975;481.06818875087106;-248.6406260438636;120.10615789529835;299.8790062480883;-5.766940755930547;-13.64997983091986;-6.152476728758164;615.0019590765063;-94.28427686932048;
-280.51791273471747;80.74041675569825;72.32984619447585;266.4501000027368;49.036016573560154;-12.374794281794953;15.592378277944848;-121.45849863788527;-94.55821195221704;195.41300496389619;189.69394061248414;-517.3771437743111;45.62297989638153;-49.34025956573443;39.41073821099535;25.85377231206336;385.491874543005;-143.42988393400097;-10.782214943443089;-16.310406579854845;-91.8950237528622;18.796741787145145;-93.93475955371858;10.236365433059689;196.76551027706054;149.1966215343675;240.57638900586414;457.5257925218368;0.5341917039383811;18.214823712489032;53.65503874754544;9.010596684623245;-219.29990965414626;156.92895190351678;-147.53275859547614;17.67655273612355;-164.46833595834806;-282.35492626257553;5.167438852833461;-386.8690764925774;-5.929784497255611;122.59392847320575;561.9281709731971;52.08819737563447;-128.53165273424452;-241.27887763005953;13.927462286235555;-83.01868463229647;181.69539605866038;6.158977672675599;153.47409827826445;76.71147274369683;353.1000788375718;102.17610934148051;-41.479225117681615;51.82158270875017;386.14912424196694;163.99227300323284;64.09521375645804;49.07169738009099;51.80328611110614;-302.17425402167817;-195.43377643788926;33.49612718149677;43.78408750923014;56.07409799845817;-204.61497637166102;156.45315109229597;-115.49646474123682;117.8133055869183;-494.0957383752341;-68.14264677594838;-111.5816689093392;116.09357977273665;-204.631666199403;274.7649316321646;9.743100219238089;-278.29645714412254;5.982796413371177;119.70745746915371;-61.43931392306716;217.53565030415234;-240.73539044314637;121.74275522807157;-224.44228307810877;119.0757215856711;376.6435619582973;7.376524807133343;83.97391716741593;8.079338182014487;-198.6325625307885;-100.16804378020592;
-143.10903216065566;40.27215606099589;256.63521744558284;-165.65751322046847;-4.997218294774223;9.46433681313436;-13.608827734381883;365.40362287723326;550.2915475320492;-290.30968295477106;182.78617209191538;-95.30672030844391;-12.921566311351343;-105.56804892120984;-42.80436519896436;-261.4872560414834;-262.5375029823962;217.54614947383163;61.13256453019629;-18.954174578766136;-44.693607525368655;68.46355209174344;7.970996684703048;192.36349129691678;-125.37671740425677;145.0324248626309;-122.42453016382902;139.53129563014875;-6.66914340757009;-13.163896528901466;-523.2209935116771;-2.9139245139975527;-218.40903300661418;-196.6372121632339;186.61313709522727;-18.2627616239447;-345.9368679220258;127.27610457883823;-36.09405887166965;-127.56856255631344;207.56632882896074;-37.78067152767534;-140.33809900196871;-28.73786490807052;-41.79874959382615;325.7168068093463;-23.644930547377292;-15.646743992198305;45.242171946330295;-18.844930990444826;28.328339799441643;-26.243531256102305;-51.4641199494001;93.35951149596269;36.3595467524564;9.942968952605465;-330.68998272750383;255.89628596600156;100.84939119260225;-25.896451840710277;-8.393379903655228;-384.1704024384453;-148.22097170177608;-9.576692765387422;604.5198751595639;29.71643541063897;21.2561075184203;-163.0161971695362;137.12669598774318;77.48111732879309;234.77352098664983;-455.29370801981554;61.31272704886263;-171.27448749066465;246.251787690281;-56.80550921982205;-14.679094239856116;30.566693426807863;-49.756505356076254;-18.6183255603802;186.93611912904484;227.66988664909172;545.6071765401562;-183.46558121643554;30.399121012811285;132.96051091810418;-462.7760914538916;14.589097442094026;-23.727452937367765;-34.75553603116236;-51.7514091226584;482.11894847455716;
79.60622223048502;-526.8916156447383;85.66997167418569;-103.98430266023543;-23.593955534323758;-114.89380132985626;-36.23820175380212;84.28556908817107;82.58765730676771;195.78165377217584;-271.6087973855037;-120.32096290739545;-34.48095901757406;600.0339321732322;77.54350103871404;-83.5919996872733;-206.57431531893147;-8.498967281952229;-4.181492493492536;8.303718314801335;135.43583591753926;122.68579631385272;-9.093086023496552;5.426860703548115;137.43466443201297;165.51384616788454;67.93504259383641;-65.08615050716065;-33.58751670282295;-14.394499003636389;-191.297997412178;-17.885778601736085;-189.9584595848693;-81.13311585043506;-28.545472988050978;-36.97044393798932;191.0399316266356;-291.1728846974046;-13.189776246647337;361.11744605890397;51.892838885214026;-31.471147766586878;-174.9836393778506;-33.27330601716113;267.02008734451744;-353.10092980078207;-39.36472347994004;136.69332638759235;-131.7156082164605;-14.366845333918759;74.99225860847565;-47.87037481378641;-76.89240538808576;-108.17919587373645;-159.77361824329458;-25.568420494298103;-81.57227340331518;-184.99175083737396;55.179640802086055;-59.67745934068801;-18.3805326926702;246.76910275378694;-136.8109532940575;31.938529092607748;23.778329841894045;-510.0225533756782;-315.3929519827284;12.771936976361342;280.024319232414;196.49897991025696;-11.804873377370242;1.2204453853641528;227.36096865821952;-50.47108355044068;-3.939639371759552;-11.940114015589737;-17.860730754296796;-80.75629590414006;-35.56693983883468;-70.08229503539401;-262.9320179344114;-67.00333531420992;-153.9258062971201;-85.92890585608785;132.50398767161556;-152.34895428401958;-125.49180668014282;-42.60743868737506;-44.220259855847644;-15.031577759032926;-326.749621473785;-83.94563360175076;
435.4338961896657;39.588983545979325;-6.394146491449689;71.76537605430453;4.209544566688901;-164.8227781809604;-15.11588200949329;104.50925439279857;-49.44272490242702;-72.7603728084051;-252.70340120072117;672.8255689485337;-38.882806302268605;-80.29834569380904;-42.91411741414424;443.0749488367445;-194.66722728989117;23.49302677861727;-158.73200500238022;20.313950299661666;-260.5803044798115;87.29286731158723;-4.880715296724238;98.72111802267258;372.40188398150144;-180.04418299585674;100.78537674996173;-70.2115415735789;-14.234201238084557;-27.343981495867137;415.1666843047598;-13.525874014434491;141.6118996699521;-75.91392392992529;168.99780978932196;-15.10458528358356;-103.69449592544433;-520.726556954839;-67.4049670018991;-352.6381517616543;-278.1246944918943;-33.06739047898979;-298.6743300719774;-62.5506700212485;284.07058134569616;-125.80883748463566;-47.34372711370692;-99.04090779637275;105.13309374348955;-6.787473025519822;19.718217702879503;-7.450888856529029;143.3373378681184;-292.5398576917675;-15.746041437410886;6.248568596754165;218.2073015171023;-262.6548528974762;-758.9520438740129;-22.83126266915774;-29.906879090169994;33.30933410190874;226.8092731461222;708.20784271444;55.62328861613134;-367.3910284229646;-35.00936499281447;76.90044958844938;-228.84940551940497;-71.86892202371365;3.7643313573081834;-128.5112328401801;366.44565635635115;-242.62927751822448;6.314546041976135;-96.43993033937996;-6.933040611682015;640.9332676796379;-49.56087371763598;-34.96659358241739;116.67324241317702;-351.04429428473406;-99.7985419205094;152.41927398758483;-32.43233846866685;213.76339831622997;-124.15789347410718;-7.503930267741485;19.775110430720478;-19.208344798118485;0.20997411335719562;17.24583758482241;
-80.81072291661084;-104.30301554798886;-49.791803978406335;92.93554581231615;-14.30172051152555;252.23778924212448;-10.556439440189052;121.86179985858011;-5.700606707030823;-154.38886364449164;208.03903753734954;-92.62371784626455;-41.36359126035127;-172.31102498531948;117.93628233328623;-56.517244337999;-113.274260993509;417.78217830401996;-257.50560211350415;24.567098406038895;442.94800245078255;102.04984397061756;-52.168616181061225;-39.819491734596554;-87.46558096138578;-179.59226744149342;-279.9981923391267;-129.6959566875135;-16.62207701427909;-28.128381232813535;-254.64812005623807;-32.37242083724363;287.149722643025;-202.05486076083446;-142.7442537725689;-26.66872561979541;404.7129115932355;532.7840082584067;-26.201909010997635;-291.5880628289712;-339.10267387291884;-57.05339748500019;-323.68940044594615;-31.315831827954433;-398.9187286483445;57.908364605288305;-32.21059324244628;132.13015602723195;-7.3799491815396365;-29.669810276492445;-52.605266467431264;-24.75684123854377;-62.63426060183144;-53.95203063942704;-123.49439124057093;-1.3705742749929455;-244.57072389346746;555.0898463096887;64.5419101807837;-41.48120476994582;-25.49774287247753;183.9062208419789;23.426041914530025;18.792916655386808;-307.4566566016269;-123.67016966138029;58.33183436113847;150.1704941252393;95.80401515664676;-18.5840745689703;-104.90747124218713;540.0113493748546;-207.3267278668772;58.62224961975082;-3.7655603442953383;36.833085075153406;9.985709004635059;48.890318448154495;19.473889091924015;-88.58159729674354;48.37015833915799;-567.7753165427104;-59.2638151872306;-178.21919638530667;-113.93338011873921;107.01927795642366;27.53594136845848;-42.57930119701481;-10.916242349820477;-1.2889564500072648;-39.328413680275254;29.698122794318703;
1.6350184202495288;403.59333741388605;-146.87341066112333;40.10427118941661;-38.72999573326823;177.13855383683298;-39.80201990762243;-174.64997910824002;-389.6787481862686;12.689996539489883;-260.25139276350006;-22.905350681836836;-7.596663921976728;105.06656316697261;-216.61824043498405;-102.45378824944386;-67.06157144128484;-431.7131053108117;-63.09344596128879;-29.309173433450447;-246.18131525050487;61.84691473098693;-447.3733320011234;-133.64317916283716;224.21568111724724;229.38334346170393;-327.66619541499216;-7.118649340570737;6.478875493717089;0.24444441903484682;485.6329887180553;-2.218640617411109;-18.502563240360576;39.44072570281848;157.32413146808835;-7.939682468253398;168.80825195857452;-2.6124632761895272;-5.537432686912379;534.7289200921698;201.2228563680362;-54.54476312738285;-85.75815114734942;4.115258448054871;-318.374655110572;589.1930861028999;-50.9948374030878;-344.82083970956;-117.49638203305524;-1.656478697565081;-98.94950201712807;-35.723461759994514;7.894766668621223;51.62936946496238;245.20696127950643;-46.645402724974296;-22.562549585941692;-251.99490395617565;66.19983527150241;7.796005351081725;-23.98003855041466;-43.20377206476461;492.576432852171;137.54525865727996;-458.58911723719166;329.30029150653104;-6.753768539672762;-125.12266468210517;13.431250664740963;-198.4566558638819;-237.89835485174677;95.16165351038808;-74.22709440910744;25.882608898183555;58.74562347764158;232.12709735698243;-20.807947099437886;-15.585246145905408;-42.59000358769451;-46.43040046376475;-284.2752304217767;-110.34955988011404;-182.42787052779272;-68.04914110379612;584.1190233468672;-90.9783722335182;-194.14487084868583;4.07754496115054;-41.25678570705569;-27.242929639217866;-413.4156224574543;16.62683920623231;
-187.41203237277253;74.21235908755047;-68.4028082038933;-260.0053304065379;-37.5004426917401;-103.04789709181998;-20.9348418159202;221.80562743282144;16.040417925345054;-308.8169540166149;-111.06839392263048;-47.53111504634735;-20.468991843485618;37.33363714653225;-49.476114104448875;72.21582565593151;-80.13693271916428;40.566828024653596;-64.67046930924539;-40.66278596790831;-396.98250761136256;40.79617142307168;-122.95419609643574;-348.09874761069784;205.4103218583268;-21.706942224831604;-326.1404711216551;123.02445007611303;-18.695735458395355;20.114798588579315;-116.17998787108027;-22.396910650717786;-13.718911755905749;108.15704346454845;63.71668967392796;-16.182986453139833;-165.92883537852248;316.09980940304246;-44.4569004380139;-148.35087997742673;108.35716403050043;-61.00420903715678;-100.37922340653299;-48.404415515623185;373.9436304964507;-213.0382132639525;-49.79934311752736;337.339346473182;7.650368182685745;-20.646489132723268;-54.4449895333218;-30.01057840126611;-68.77406142101195;255.42482291862444;379.2301977220262;-31.434988866005632;-70.4978148386561;-61.56819016729997;130.6510126025807;-15.188983128458483;-33.277535795211556;-209.94770131785927;41.864278684935826;-45.23295668951898;-169.3803718553236;-238.53479297612722;-138.61448540653552;15.144635866798996;168.95390752441483;180.851413340719;-113.54113517438937;91.89893408180087;-165.5882434646642;197.49978643053365;-110.32971199351388;228.40419374457497;-31.383551935826425;280.88173000037904;-23.901014764038237;-21.376521506604192;-173.95971544688805;-107.13460103455186;-127.32812336135738;-229.5678780914359;-290.9109214136597;-266.1584123442494;72.83565278966256;15.000969480641615;-43.10125736682501;-20.17822786527375;-323.4625655887214;9.922233638760986;
-279.1191583750797;168.92730590841848;111.29397787705872;-90.39466775786215;-37.05215604834723;-2.303413332892699;-25.552609191612387;-12.630361765802066;-77.8581676737545;-165.59751728827447;-85.11387556577064;-200.2430950806281;-29.611687416512396;-111.60772714732045;10.064400247912895;204.79130703023444;-11.817486269216932;41.59079481988985;-19.290865928186438;-11.186443817164912;27.86175099092635;23.268681106614896;-147.71001621465146;-71.84399532930752;212.07434768557954;39.0050027373278;-55.35171014469716;172.60393864003183;-19.78302878939871;16.98264595062242;-77.77039954294906;-23.5210605794004;64.23865000504534;136.4697446089931;-17.169444106774296;-20.18874052619316;-153.6366791963866;-37.574050475771664;-43.08827934620403;-172.09374537092384;-74.28026048983916;-34.064258719637024;19.167658970799785;-26.778792783638835;258.6918911730412;18.021738458138607;-44.774575354281474;-34.51392834929683;-29.454462450261094;-16.242651810588704;-68.27079391385459;-22.3659732414555;33.34655419700741;-79.52950658227797;-134.51966973469882;-24.438370440510983;336.1593787700038;-347.62618737660705;-240.56636740095794;-26.801905844790184;-33.41689360755285;-110.23516014081383;-19.235591952093387;509.85910238015515;-272.98285628530584;91.53753759521368;17.374151363594965;-134.54638787585162;-105.90606968965521;44.93940800053465;23.77945235107638;152.13448085884448;306.6169949845853;61.56767887838332;150.6942403608219;-11.430993682219054;-18.119810712310798;148.58713859664277;-7.716333350071597;-44.1640259598105;85.36371480054532;-437.75446687612794;-4.0656491460196476;-128.46362711636132;1.576325140482778;-22.35965552084311;-86.5512374627609;-17.681639702172628;-28.881027165501912;-8.958756556505769;2.7208657686045603;-33.552671662912935;

HIDDEN-OUTPUT WEIGHTS
-19.664917575001848;-1.4557508329554296;25.313444748372984;-2.418724408528096;21.480955447490835;-1.5509700884955717;4.6551914688733085;-40.70403792203174;8.420838278376356;
-10.963338070337167;-0.966338814024928;1.226100334893622;-52.7559433603146;23.53714688436318;1.3079421024471585;13.551800510189064;16.227777041255806;17.97479598249059;
-29.224098665564664;10.202922615574314;11.187609900246867;-2.575918716464806;7.637447836900398;16.50505514955128;-15.951347691230348;21.963499843437074;-23.374913660651163;
-21.038912841344867;-14.956358342335708;-2.80651822874772;-14.76976893807666;22.15930515394957;6.856154675392221;-29.214278599117588;-6.333294772475249;-18.71993287796711;
1.3031966314447745;-7.857246790137791;-2.5017855405526466;-3.839571515689813;7.309555072710711;-3.0389853075700684;-4.741526988382157;-7.447630871121857;-5.706529902202632;
0.12586465101981914;-4.292334649428699;-5.474845308456207;-4.139000445726148;27.583145065451486;18.607557493814724;27.57591600623117;-6.529637115667442;15.491232974964444;
2.6046384758802192;-6.6824894229812255;-1.9441845008476522;-4.809244468171847;6.31069945121231;-2.541866924802124;-4.592764697460096;-5.500887939558392;-5.034248255795424;
2.772772518914376;-5.276258124663273;-2.962296894730258;-12.997106581311087;30.724710806889643;-2.6158013340543964;-4.970790567243624;6.359205871256571;5.270751925291047;
16.409034807582252;11.262608282847768;16.100232579431047;17.934778615411417;-50.49653903218604;-0.32491609438858104;-4.178989725392415;1.059176310227856;17.831042294707625;
-6.703709409790092;31.375083569616002;-6.1407382533617385;21.88448599351192;29.42755708333286;-4.975650556696423;13.435209167549733;-44.97256865162443;-33.69697506135406;
20.430535923888215;14.404455482084254;13.041702192431728;-19.491673950502562;-42.02303259577563;0.3311331046558862;0.180318132323961;20.650756977429523;26.36392738975226;
34.0051598176038;6.712694493857521;-18.07144983597375;-10.377520813777899;25.591138555341015;6.097756509526139;-16.87671020894863;-37.87827978690568;4.171554985411831;
0.8928186108911943;-5.4159241510006275;-2.8033371805242826;-3.3981062443375776;8.005740859084456;-4.5833790537517025;-1.6927719297516588;-5.417692248541635;-4.458212978926437;
-9.361511656146027;-6.652065549118492;-12.144747128723576;54.918343441417896;7.0868975386085955;2.165147052876279;-24.580527007312774;-7.80037717683791;42.7052812564927;
42.938021597906754;-8.843885057487551;9.755947691045431;5.064222174632988;2.822256830853374;7.147904430853076;-26.712877965133867;-17.453097857716344;9.210847163264125;
2.253935205964238;11.795499952499888;-15.636660683509088;6.919090616509234;10.365109632489935;-7.932738495244099;-33.87218901071104;17.558417207121774;-6.964823480617632;
-8.835128319005795;-4.315449373380741;-11.548521117877646;-7.999985957397644;28.250516117885063;-2.909575729846696;18.777568176827213;-3.8746109966217515;-10.841787153038641;
-26.57943342583946;-14.842767526194411;18.01688621505453;-18.996420001085735;-21.625863938263517;-0.4505208029767379;-14.002865323298295;5.055449712055645;36.862474442317264;
5.325456693122493;6.776514998373012;-4.653651274512103;-19.044266525918072;-4.1972078019606895;-5.696007287356129;-3.95154238298866;49.084457681690616;20.497901579321024;
0.926890120782117;-9.666856744264448;-0.3488884431084075;-1.811312764715737;1.8836961550378624;1.3162377378287802;-4.370821787169663;-4.837030667942314;-3.405911681227157;
-16.601220324547306;13.64788491809746;-17.725879284558804;27.995087503909808;37.809310982355974;8.032342846541658;-7.782803584421076;-25.733450656799995;-0.49277310516711575;
9.64510444732835;30.090965728193197;-22.534522239811967;-2.723173567588298;63.94408589623845;16.858178699392234;21.312623262393544;16.403105066936092;22.699037073814473;
-3.4478369038608596;-31.081845256056763;-7.205342219305114;44.15995231087906;8.927260908254373;10.373150751264113;39.19838863837016;-25.750491179012293;-6.615406703026973;
-19.661050883175953;0.57428275719583;-32.804750381709326;19.368185721271136;12.849668401805744;-4.1313610028366465;15.703868714252247;-36.67572809819644;0.0417060269411815;
1.4996123583282948;1.724633518855916;2.2431707288082645;1.7193270170716897;-53.207057039516314;4.880180488097243;12.27793720718165;7.650606797361579;69.01977856162641;
40.658223338070925;-8.972829745387482;17.181402822485833;-5.077961347540751;-5.984134941931451;-0.10051428734563009;6.312546975039961;-17.886169214978683;-34.59313173751277;
-13.76171021637562;-10.346944406191898;-29.19595862697809;-4.650029981678757;2.521975215929798;43.506798885188935;-20.538346480535246;-11.419898669889589;-13.621882921026323;
-20.192112363704283;44.289145332428255;-21.908717685311625;-1.0742511878991208;11.202717112232905;-5.5813301534898905;-3.325407234830645;9.520579232910999;42.23468896460304;
2.8939144968178327;-6.438490892406726;-2.4255788618262524;-4.349368626930029;4.029310844209186;-1.7479328629578343;-0.3244997172337566;-5.161069127539579;-2.5626791280358816;
2.829927798175513;-5.20005110372516;0.5582980622817902;-0.24524968993373955;5.39896589357011;-3.1234099597580864;-1.3872334537881186;-0.020937569941091336;-4.391922897152192;
-5.253232385716615;-7.479013002846165;-19.906975758887345;-2.078476463356777;41.91250352699318;0.2048372091972492;13.72882050821826;-21.719053058538393;23.331945968157616;
2.7770782824596454;-8.372619757306726;-1.175193290579344;-1.607194839122645;3.939987909297552;-4.061307676431408;-1.6742676802508787;-5.738933714209313;-4.617189348397856;
-6.979258215316704;-13.150147302993187;-11.76831338850456;22.74824810792934;-2.215270990081163;29.252400176309035;-17.324640094179447;-14.4870442404611;-7.132679072768354;
27.96795232235179;-14.69488774414251;5.397521794636126;3.335054192748767;-19.55654759894323;-1.6030628504650146;15.76763472510492;1.2284124015378362;32.63172789339938;
-5.437502727210764;-23.24427882225827;6.1135907490154215;12.191576634056075;-5.743618582928857;-7.672756950577393;-22.34763386203812;-2.8021298876682077;8.379219000094167;
2.0150225764133736;-7.288794737565542;-2.6912218955341105;-4.038468645376691;6.16917578180202;-2.974547225790435;-1.809523842585048;-4.991542868202002;-3.5212224430086674;
31.007819269090884;-5.241081906810802;23.749254954012628;2.861834251929125;-18.851457246844404;2.130941035922319;0.38706286384940675;-0.31228909555572104;-28.251163387817417;
0.7305993525600507;-17.14446172102724;-21.606927319336723;-19.860387162039256;-27.19282801531749;11.864576240681163;-2.663930891210473;12.959955735122865;59.81973822648481;
1.4158318020598337;-7.278319906405503;-3.4858074517801976;0.9782810786419801;7.503321561124406;-3.575256352682041;-5.222468413725786;-8.769067590929485;-5.485644701613336;
15.445799482832236;9.50763186220009;-6.751820475233973;-3.9807389932417907;22.12396526859141;0.6242434835432149;0.18665042136461327;-36.3582079556514;-16.254875686397522;
-6.513501600263222;-18.364013691507242;-8.550634367596551;-5.661538097798819;41.34758050350522;-12.747890036651585;1.346711482367842;21.095327335234103;14.82096260363315;
-2.074917415275926;-3.6455063440403195;-7.464436152778053;-4.119322760461836;10.545248485507809;0.9397525272851178;-2.546724426339316;-8.470758537405112;-7.995516215834207;
-10.668466554869607;-10.19157486300847;-26.45322122788385;-8.601800552839551;17.38679289461914;-4.561143322957639;-4.983223758482178;-5.617508762993176;-17.163835608022694;
0.9986678917533661;-3.5589780437385157;-4.067120111394104;-3.2018576536718233;9.116370440097027;-2.2910514186455893;-0.9202491068539104;-7.244467815616122;-4.633217444411329;
-7.828235796100005;-1.2521988935696682;-1.9063477065783363;-1.8532045292020085;0.055619624902034655;9.69665620506129;29.670439942824476;-56.631966991968504;19.96474027400229;
0.03982843975567632;18.274073130721707;-13.225138150712093;18.859087989786715;-17.68032710549839;-0.4704947807967773;-3.242667997086866;-18.797383804333865;10.10947584283347;
0.7576441846988192;-5.900862143771336;-5.364455825279504;-4.677046029168553;10.079131979558886;-5.670033548252549;-4.801812517410595;-6.614011152505856;-4.371005093934643;
12.71255303416541;0.5570931353326273;-23.465056777500635;10.378134555446891;30.429238889897697;-0.011092773410452098;4.736530018044614;28.893922951993336;-55.045811496712865;
-7.253289284248643;-4.724738417945044;-1.5364595243602126;-4.8990384118739305;16.05535475029831;-1.068543936677434;-14.509030075639767;-8.201932150799305;-7.862989879544822;
2.0699739014173275;-8.230781807262836;-1.3047669987389263;-1.2842586836969978;3.914854408887352;-3.0642288402922087;-1.476248055631814;-5.407885886268402;-3.6260057926898788;
-3.3483611632433354;-3.001351960002633;-8.454482208546697;-7.778227762334523;9.73848889650405;-8.358871172915364;-4.582045758094036;-10.969520615449815;-4.611241161738716;
-0.15869362991213196;-6.638604702024872;-4.417027302195163;-5.328887440627172;9.826944668460676;-1.9919005537767582;-4.1707955739896265;-4.696234594816107;-6.742578811331352;
12.481773463467642;31.51647269323124;33.896426005574334;4.029139368745838;-13.02912219076882;4.455675134349734;2.553257275767293;-44.64863649441724;36.151336403722865;
-4.447054923811833;-17.469155194012604;-6.954506574550954;-21.288134978521263;18.086963702617947;12.946496237456175;-13.311108498546067;-5.585846653503324;-20.210287472028693;
17.84393769515278;28.554659894278096;17.88720861243488;-1.1315184921219468;10.244970991315697;-9.251167669362488;-0.9046171438767153;18.265434470984953;-22.974213397768306;
1.1172670480466358;-7.123323403743524;-0.637493142210034;-5.856885147508225;6.483393834241197;0.13540033368672078;-5.5858857421190775;-5.586679830690949;-5.783495244071221;
-14.581488776590088;-13.237376669204135;21.145473797318036;-17.102563690283866;-13.979920475139386;-5.543252720257912;11.297159925704273;33.4047918441825;-36.99063133514282;
5.156982222672931;3.443364159589927;2.0897270443466542;9.571898779368887;-2.1468496137231496;10.26132604941289;-5.565913044068434;-28.34961566370472;8.851347846900394;
-16.036460115824777;0.8643183728761207;17.57489000641798;12.071040053159392;0.6677226911970428;-2.5085964114663617;5.536827459049917;15.906668729434804;-74.6042151183583;
1.5631775860528663;-5.393311141456842;-3.014856430820922;-5.508311750845061;9.349525810970102;-3.6012196570972272;-0.25849937492961733;-4.668494787765867;-0.5551945118656957;
0.358427295144285;-5.896551994268721;-2.6451238160781774;-2.5818624520328366;7.20487742381714;-3.1096102064651103;-3.880968951659119;-6.917406945068893;-5.677627722147748;
-5.090725477463382;-33.40042512879089;7.709306330936889;-4.961678990671264;-26.107476519565854;-2.017291051478637;2.5503491099001088;7.9036558520955715;7.17388224912999;
3.9165381174329577;-1.186442028474756;-3.108455782106666;13.347963930643875;-48.13376285530195;0.3185767615753981;23.169360756100104;12.551776768432378;-1.1315155590670405;
5.877998842237064;7.392879482403668;4.272324135807722;12.113077683241201;8.943720637130273;-1.7769602577134707;3.128822135349943;21.407232445235348;-89.55050098489546;
24.860886872290386;-16.209576379079003;-7.244683223824057;-16.94310719668649;7.689320193069381;-14.989391868532756;16.77849452593931;-7.049533691527364;-41.28525334584659;
8.926493107739546;8.953328221192727;-7.962103497897102;18.124881965940673;29.415746000777148;-7.384419448524444;12.532985985029205;-35.531066938721615;-25.50292961135948;
10.792265808977431;-18.65452165169294;-9.281859897326616;6.0062959877564195;-7.502272770201638;9.225729532988426;26.844042567757537;-6.8456840471162135;1.1671105942597768;
-33.73529240647448;8.151531197303761;-3.2518709425266765;7.23514700089364;-21.97607199473608;13.659388523939326;14.913679463287181;11.984858944998983;-10.140103705803101;
-9.28436937368327;-2.5759099995836454;-2.513685255910777;14.307239310565832;-27.36213052776162;2.657686609037298;23.386216684367017;6.672659141533861;6.4980276440999125;
6.814568647747446;6.014681720916087;26.52676304943158;8.440196216232277;11.079643547798907;-10.121713414324573;-5.815477527173664;-8.9796862079139;-10.027966528072726;
10.663013551004703;40.13018717950333;-8.297449909423962;-0.5157202065620416;-10.821158324454762;0.9102392223627849;5.543784767661803;-50.878138320841856;12.765613127988043;
-1.2550286458529187;13.276848780668281;3.166527010065901;-12.941658620409468;23.89202277222049;3.9848950943534347;-3.3871197387752763;7.566900888160166;-27.251247398119425;
-11.711915352645146;10.345342791401995;0.565084847085205;14.264791207825262;-4.845614641041965;-4.847631321733869;-5.454251727188877;38.2944242257403;-15.189670551202404;
16.393291949888713;-20.19648160302589;7.216474598459642;-0.11624697254300399;21.216489860487094;3.1373619879261363;-26.582572148881397;-5.897437925949443;6.2660454211582195;
38.707085600128316;-28.09230248324104;27.543715190428536;0.38541262372085894;13.796254828707307;-0.813025154209941;-11.701519721650444;0.9141269857674463;-2.678134204083399;
2.921413205726583;-7.945567379633216;8.406119480833746;12.318905260440781;-3.377776946622831;0.8556637957655818;5.74425404449153;14.944323980295744;-36.57891853071216;
0.2823783155210156;-7.784830000043597;-1.3948271223431439;-3.1842477265614386;4.216298389554849;0.36637546779432884;-4.119627763686826;-5.423180471112667;-4.953091787685852;
3.4265921912869985;-16.33886309659626;5.329668391199314;0.4408644127116698;38.4608658288511;5.231187935303928;5.389714854061599;-17.991555729040385;10.417995821361638;
1.495151737149311;-5.484103966467527;-4.055133277298797;-0.05790113137557995;7.980688558808039;-0.14886671284332115;-7.732483362750976;-4.585917355527777;-3.4650343502558743;
-1.1293448989964074;-6.291691793172395;-4.972729164258393;-7.100274031878807;12.266922477982883;-5.7804091116477245;-1.5082440753218405;-6.546711007796945;-6.150976010609267;
-46.61214226233045;15.972953509506757;12.348627982549909;-21.210360028726587;5.0620492399109835;-6.0507723442060115;-1.2344320136571718;14.628285754311941;6.933052823295485;
-12.311612410622056;27.84305014669791;20.55675397307487;23.739325706441036;49.11437232913383;-23.785856824155054;-12.182934849136352;-34.42079945211677;-32.03352170354662;
-12.404568028370694;-29.01628497929289;11.993225405956354;-2.6711655708026325;-38.404564984519915;28.55540165733497;10.027074409020141;8.170705123075912;-17.792319236167867;
39.70372617997613;-3.23363157697345;17.456185044066032;-5.333503373012414;5.583314556286529;0.11664827347192494;0.8996097567482608;-6.596560248086667;-33.21501099650354;
-28.345515664810744;-3.5516628044589207;10.749252427380613;-22.214065267976135;0.8353654878405965;-5.06421872008197;18.072545423761877;12.56708728720974;23.04612400642093;
15.743568191256234;-7.644725235444737;3.661743455975058;0.014910382814140435;23.242680316392015;1.7250912542050767;1.0004570954116772;19.51615860021253;-18.296746752486584;
-6.102353655025298;25.7836153841197;-43.03070871017484;1.8599005865393614;6.746831619190838;0.758170598560362;3.284189765447908;3.9760923328527924;0.6753069377679107;
4.287469579256849;-5.5999486180297655;-0.2746955807561447;-4.440230021863544;4.799706248250716;-6.279622333498551;0.32397725122394144;-2.4640268705372113;-2.8033138068341907;
-0.5646775208153381;-7.165714844800497;-4.063643568918861;-5.028444556373824;9.732818628113709;-1.5676809884291054;-5.665502880083687;-5.5538100127417644;-6.539945197445908;
1.1423117496207693;-6.796915292739195;-2.061691247859351;-0.20755831481008052;5.725143761469608;0.1296911636851316;-3.7968581640383574;-4.439410298970837;-4.07966895506318;
-7.365457021535211;4.759421245364731;-15.383661947618366;-29.50121347222381;48.30792388456128;-1.7616114340603855;-33.77696720794989;0.30405700128553625;-20.25523539264162;
-11.24288390078261;-1.9167711635637592;41.11701605842868;-4.36091363768466;12.094199687247325;3.4727995997863554;-2.582763432413151;-11.811987017724492;-13.985055874683;

HIDDEN-BIAS
-486.86650321589286

OUTPUT-BIAS
-35.65279824405038

